<?xml version="1.0"?>
<opencv_storage>
<cascade>
  <stageType>BOOST</stageType>
  <featureType>HAAR</featureType>
  <height>40</height>
  <width>80</width>
  <stageParams>
    <boostType>GAB</boostType>
    <minHitRate>9.9900001287460327e-01</minHitRate>
    <maxFalseAlarm>5.0000000000000000e-01</maxFalseAlarm>
    <weightTrimRate>9.4999999999999996e-01</weightTrimRate>
    <maxDepth>1</maxDepth>
    <maxWeakCount>100</maxWeakCount></stageParams>
  <featureParams>
    <maxCatCount>0</maxCatCount>
    <featSize>1</featSize>
    <mode>ALL</mode></featureParams>
  <stageNum>8</stageNum>
  <stages>
    <!-- stage 0 -->
    <_>
      <maxWeakCount>3</maxWeakCount>
      <stageThreshold>-1.0388405323028564e+00</stageThreshold>
      <weakClassifiers>
        <_>
          <internalNodes>
            0 -1 8 -2.4672602117061615e-01</internalNodes>
          <leafValues>
            9.7435897588729858e-01 -9.7658860683441162e-01</leafValues></_>
        <_>
          <internalNodes>
            0 -1 26 -1.7531180754303932e-02</internalNodes>
          <leafValues>
            9.3554443120956421e-01 -9.3526381254196167e-01</leafValues></_>
        <_>
          <internalNodes>
            0 -1 5 -4.6464975923299789e-02</internalNodes>
          <leafValues>
            8.7301194667816162e-01 -9.8905807733535767e-01</leafValues></_></weakClassifiers></_>
    <!-- stage 1 -->
    <_>
      <maxWeakCount>3</maxWeakCount>
      <stageThreshold>-1.0024855136871338e+00</stageThreshold>
      <weakClassifiers>
        <_>
          <internalNodes>
            0 -1 22 -9.2335015535354614e-02</internalNodes>
          <leafValues>
            8.5611510276794434e-01 -8.1818181276321411e-01</leafValues></_>
        <_>
          <internalNodes>
            0 -1 14 -2.7672365307807922e-02</internalNodes>
          <leafValues>
            6.3158065080642700e-01 -9.5319151878356934e-01</leafValues></_>
        <_>
          <internalNodes>
            0 -1 3 -4.4758677482604980e-02</internalNodes>
          <leafValues>
            7.6888781785964966e-01 -7.9127264022827148e-01</leafValues></_></weakClassifiers></_>
    <!-- stage 2 -->
    <_>
      <maxWeakCount>4</maxWeakCount>
      <stageThreshold>-1.7659513950347900e+00</stageThreshold>
      <weakClassifiers>
        <_>
          <internalNodes>
            0 -1 30 6.9471858441829681e-03</internalNodes>
          <leafValues>
            -7.5986278057098389e-01 7.5732219219207764e-01</leafValues></_>
        <_>
          <internalNodes>
            0 -1 17 -1.1268768459558487e-02</internalNodes>
          <leafValues>
            6.0824126005172729e-01 -8.4895795583724976e-01</leafValues></_>
        <_>
          <internalNodes>
            0 -1 11 -5.1218051463365555e-02</internalNodes>
          <leafValues>
            5.4631143808364868e-01 -9.6251952648162842e-01</leafValues></_>
        <_>
          <internalNodes>
            0 -1 1 7.6207355596125126e-03</internalNodes>
          <leafValues>
            -7.0344215631484985e-01 7.4815011024475098e-01</leafValues></_></weakClassifiers></_>
    <!-- stage 3 -->
    <_>
      <maxWeakCount>4</maxWeakCount>
      <stageThreshold>-8.1060707569122314e-01</stageThreshold>
      <weakClassifiers>
        <_>
          <internalNodes>
            0 -1 20 -2.3937860503792763e-02</internalNodes>
          <leafValues>
            7.1755725145339966e-01 -9.0272372961044312e-01</leafValues></_>
        <_>
          <internalNodes>
            0 -1 15 1.1972643435001373e-02</internalNodes>
          <leafValues>
            -7.6954442262649536e-01 5.3489512205123901e-01</leafValues></_>
        <_>
          <internalNodes>
            0 -1 10 -6.1629705131053925e-02</internalNodes>
          <leafValues>
            4.3400847911834717e-01 -9.2503410577774048e-01</leafValues></_>
        <_>
          <internalNodes>
            0 -1 7 -2.1736100316047668e-03</internalNodes>
          <leafValues>
            4.2765259742736816e-01 -8.6891651153564453e-01</leafValues></_></weakClassifiers></_>
    <!-- stage 4 -->
    <_>
      <maxWeakCount>4</maxWeakCount>
      <stageThreshold>-1.6808569431304932e+00</stageThreshold>
      <weakClassifiers>
        <_>
          <internalNodes>
            0 -1 33 -9.9169500172138214e-03</internalNodes>
          <leafValues>
            7.8917378187179565e-01 -7.5919729471206665e-01</leafValues></_>
        <_>
          <internalNodes>
            0 -1 25 -2.4744574911892414e-03</internalNodes>
          <leafValues>
            6.3018316030502319e-01 -7.7630043029785156e-01</leafValues></_>
        <_>
          <internalNodes>
            0 -1 16 3.9433543570339680e-03</internalNodes>
          <leafValues>
            -6.5772289037704468e-01 5.6611472368240356e-01</leafValues></_>
        <_>
          <internalNodes>
            0 -1 31 -8.1425663083791733e-03</internalNodes>
          <leafValues>
            5.1236367225646973e-01 -8.4182691574096680e-01</leafValues></_></weakClassifiers></_>
    <!-- stage 5 -->
    <_>
      <maxWeakCount>5</maxWeakCount>
      <stageThreshold>-1.3410694599151611e+00</stageThreshold>
      <weakClassifiers>
        <_>
          <internalNodes>
            0 -1 32 9.6210301853716373e-04</internalNodes>
          <leafValues>
            -9.2290246486663818e-01 5.9022116661071777e-01</leafValues></_>
        <_>
          <internalNodes>
            0 -1 21 -1.0187800228595734e-01</internalNodes>
          <leafValues>
            6.6743248701095581e-01 -5.7879394292831421e-01</leafValues></_>
        <_>
          <internalNodes>
            0 -1 0 9.1660525649785995e-03</internalNodes>
          <leafValues>
            -6.7057615518569946e-01 6.1683326959609985e-01</leafValues></_>
        <_>
          <internalNodes>
            0 -1 13 2.2173896431922913e-03</internalNodes>
          <leafValues>
            -7.8205233812332153e-01 4.2812567949295044e-01</leafValues></_>
        <_>
          <internalNodes>
            0 -1 34 3.9968398050405085e-04</internalNodes>
          <leafValues>
            -6.6568100452423096e-01 4.0307748317718506e-01</leafValues></_></weakClassifiers></_>
    <!-- stage 6 -->
    <_>
      <maxWeakCount>7</maxWeakCount>
      <stageThreshold>-9.3631333112716675e-01</stageThreshold>
      <weakClassifiers>
        <_>
          <internalNodes>
            0 -1 18 -1.3276666402816772e-01</internalNodes>
          <leafValues>
            5.8279007673263550e-01 -6.5103191137313843e-01</leafValues></_>
        <_>
          <internalNodes>
            0 -1 19 -9.1539453715085983e-03</internalNodes>
          <leafValues>
            3.5780772566795349e-01 -9.1561114788055420e-01</leafValues></_>
        <_>
          <internalNodes>
            0 -1 6 9.1872205957770348e-03</internalNodes>
          <leafValues>
            3.2412949204444885e-01 -8.8838237524032593e-01</leafValues></_>
        <_>
          <internalNodes>
            0 -1 28 -1.7378613352775574e-02</internalNodes>
          <leafValues>
            2.3638758063316345e-01 -8.1695580482482910e-01</leafValues></_>
        <_>
          <internalNodes>
            0 -1 27 -2.7388189919292927e-03</internalNodes>
          <leafValues>
            3.2375818490982056e-01 -8.7464177608489990e-01</leafValues></_>
        <_>
          <internalNodes>
            0 -1 2 6.3962754793465137e-03</internalNodes>
          <leafValues>
            -5.2723973989486694e-01 5.2023994922637939e-01</leafValues></_>
        <_>
          <internalNodes>
            0 -1 12 -1.9885448738932610e-02</internalNodes>
          <leafValues>
            2.7915787696838379e-01 -9.3973785638809204e-01</leafValues></_></weakClassifiers></_>
    <!-- stage 7 -->
    <_>
      <maxWeakCount>7</maxWeakCount>
      <stageThreshold>-1.1196157932281494e+00</stageThreshold>
      <weakClassifiers>
        <_>
          <internalNodes>
            0 -1 4 -2.0677670836448669e-01</internalNodes>
          <leafValues>
            4.5933562517166138e-01 -7.0491802692413330e-01</leafValues></_>
        <_>
          <internalNodes>
            0 -1 29 -6.5790593624114990e-02</internalNodes>
          <leafValues>
            -8.9837312698364258e-01 3.1533804535865784e-01</leafValues></_>
        <_>
          <internalNodes>
            0 -1 23 -6.9694295525550842e-03</internalNodes>
          <leafValues>
            2.0974148809909821e-01 -8.6086910963058472e-01</leafValues></_>
        <_>
          <internalNodes>
            0 -1 35 1.2282930314540863e-02</internalNodes>
          <leafValues>
            2.1232406795024872e-01 -9.6041530370712280e-01</leafValues></_>
        <_>
          <internalNodes>
            0 -1 24 -1.0261953808367252e-02</internalNodes>
          <leafValues>
            3.6270731687545776e-01 -5.3891164064407349e-01</leafValues></_>
        <_>
          <internalNodes>
            0 -1 36 8.4042351227253675e-04</internalNodes>
          <leafValues>
            3.8028863072395325e-01 -6.4519286155700684e-01</leafValues></_>
        <_>
          <internalNodes>
            0 -1 9 -8.7808649986982346e-03</internalNodes>
          <leafValues>
            2.2023279964923859e-01 -8.9758503437042236e-01</leafValues></_></weakClassifiers></_></stages>
  <features>
    <_>
      <rects>
        <_>
          0 6 20 25 -1.</_>
        <_>
          5 6 10 25 2.</_></rects>
      <tilted>0</tilted></_>
    <_>
      <rects>
        <_>
          1 9 16 22 -1.</_>
        <_>
          5 9 8 22 2.</_></rects>
      <tilted>0</tilted></_>
    <_>
      <rects>
        <_>
          2 9 12 23 -1.</_>
        <_>
          5 9 6 23 2.</_></rects>
      <tilted>0</tilted></_>
    <_>
      <rects>
        <_>
          3 0 36 24 -1.</_>
        <_>
          3 0 18 12 2.</_>
        <_>
          21 12 18 12 2.</_></rects>
      <tilted>0</tilted></_>
    <_>
      <rects>
        <_>
          6 9 54 22 -1.</_>
        <_>
          33 9 27 22 2.</_></rects>
      <tilted>0</tilted></_>
    <_>
      <rects>
        <_>
          8 15 36 10 -1.</_>
        <_>
          26 15 18 10 2.</_></rects>
      <tilted>0</tilted></_>
    <_>
      <rects>
        <_>
          13 16 33 7 -1.</_>
        <_>
          24 16 11 7 3.</_></rects>
      <tilted>0</tilted></_>
    <_>
      <rects>
        <_>
          14 14 12 9 -1.</_>
        <_>
          20 14 6 9 2.</_></rects>
      <tilted>0</tilted></_>
    <_>
      <rects>
        <_>
          16 7 51 27 -1.</_>
        <_>
          33 16 17 9 9.</_></rects>
      <tilted>0</tilted></_>
    <_>
      <rects>
        <_>
          19 13 16 11 -1.</_>
        <_>
          27 13 8 11 2.</_></rects>
      <tilted>0</tilted></_>
    <_>
      <rects>
        <_>
          21 8 30 21 -1.</_>
        <_>
          36 8 15 21 2.</_></rects>
      <tilted>0</tilted></_>
    <_>
      <rects>
        <_>
          23 7 34 24 -1.</_>
        <_>
          40 7 17 24 2.</_></rects>
      <tilted>0</tilted></_>
    <_>
      <rects>
        <_>
          24 15 27 18 -1.</_>
        <_>
          33 21 9 6 9.</_></rects>
      <tilted>0</tilted></_>
    <_>
      <rects>
        <_>
          26 18 7 12 -1.</_>
        <_>
          26 24 7 6 2.</_></rects>
      <tilted>0</tilted></_>
    <_>
      <rects>
        <_>
          26 21 36 9 -1.</_>
        <_>
          38 24 12 3 9.</_></rects>
      <tilted>0</tilted></_>
    <_>
      <rects>
        <_>
          27 18 9 18 -1.</_>
        <_>
          27 27 9 9 2.</_></rects>
      <tilted>0</tilted></_>
    <_>
      <rects>
        <_>
          28 19 4 14 -1.</_>
        <_>
          28 26 4 7 2.</_></rects>
      <tilted>0</tilted></_>
    <_>
      <rects>
        <_>
          29 7 15 10 -1.</_>
        <_>
          29 12 15 5 2.</_></rects>
      <tilted>0</tilted></_>
    <_>
      <rects>
        <_>
          30 3 24 36 -1.</_>
        <_>
          30 12 24 18 2.</_></rects>
      <tilted>0</tilted></_>
    <_>
      <rects>
        <_>
          30 4 10 30 -1.</_>
        <_>
          35 4 5 30 2.</_></rects>
      <tilted>0</tilted></_>
    <_>
      <rects>
        <_>
          30 4 12 16 -1.</_>
        <_>
          30 12 12 8 2.</_></rects>
      <tilted>0</tilted></_>
    <_>
      <rects>
        <_>
          32 0 13 40 -1.</_>
        <_>
          32 10 13 20 2.</_></rects>
      <tilted>0</tilted></_>
    <_>
      <rects>
        <_>
          33 2 18 36 -1.</_>
        <_>
          33 11 18 18 2.</_></rects>
      <tilted>0</tilted></_>
    <_>
      <rects>
        <_>
          33 21 24 9 -1.</_>
        <_>
          39 21 12 9 2.</_></rects>
      <tilted>0</tilted></_>
    <_>
      <rects>
        <_>
          34 4 5 12 -1.</_>
        <_>
          34 10 5 6 2.</_></rects>
      <tilted>0</tilted></_>
    <_>
      <rects>
        <_>
          34 7 7 15 -1.</_>
        <_>
          34 12 7 5 3.</_></rects>
      <tilted>0</tilted></_>
    <_>
      <rects>
        <_>
          34 16 10 10 -1.</_>
        <_>
          34 16 10 5 2.</_></rects>
      <tilted>1</tilted></_>
    <_>
      <rects>
        <_>
          34 18 12 11 -1.</_>
        <_>
          40 18 6 11 2.</_></rects>
      <tilted>0</tilted></_>
    <_>
      <rects>
        <_>
          40 2 24 4 -1.</_>
        <_>
          48 10 8 4 3.</_></rects>
      <tilted>1</tilted></_>
    <_>
      <rects>
        <_>
          41 0 11 24 -1.</_>
        <_>
          41 0 11 12 2.</_></rects>
      <tilted>1</tilted></_>
    <_>
      <rects>
        <_>
          43 24 5 14 -1.</_>
        <_>
          43 31 5 7 2.</_></rects>
      <tilted>0</tilted></_>
    <_>
      <rects>
        <_>
          48 8 12 24 -1.</_>
        <_>
          48 16 12 8 3.</_></rects>
      <tilted>0</tilted></_>
    <_>
      <rects>
        <_>
          48 19 1 18 -1.</_>
        <_>
          48 28 1 9 2.</_></rects>
      <tilted>0</tilted></_>
    <_>
      <rects>
        <_>
          48 21 8 10 -1.</_>
        <_>
          48 21 4 10 2.</_></rects>
      <tilted>1</tilted></_>
    <_>
      <rects>
        <_>
          50 21 12 9 -1.</_>
        <_>
          53 21 6 9 2.</_></rects>
      <tilted>0</tilted></_>
    <_>
      <rects>
        <_>
          51 12 11 10 -1.</_>
        <_>
          51 12 11 5 2.</_></rects>
      <tilted>1</tilted></_>
    <_>
      <rects>
        <_>
          79 12 1 28 -1.</_>
        <_>
          79 26 1 14 2.</_></rects>
      <tilted>0</tilted></_></features></cascade>
</opencv_storage>
